digraph Tree {
node [shape=box, style="filled", color="black"] ;
0 [label="Title_Mr <= 0.5\ngini = 0.473\nsamples = 891\nvalue = [549, 342]\nclass = 0", fillcolor="#e5813960"] ;
1 [label="Pclass_3 <= 0.5\ngini = 0.4061\nsamples = 360\nvalue = [102, 258]\nclass = 1", fillcolor="#399de59a"] ;
0 -> 1 [labeldistance=2.5, labelangle=45, headlabel="True"] ;
2 [label="gini = 0.1287\nsamples = 188\nvalue = [13, 175]\nclass = 1", fillcolor="#399de5ec"] ;
1 -> 2 ;
3 [label="gini = 0.4994\nsamples = 172\nvalue = [89, 83]\nclass = 0", fillcolor="#e5813911"] ;
1 -> 3 ;
4 [label="Fare <= 26.2687\ngini = 0.2663\nsamples = 531\nvalue = [447, 84]\nclass = 0", fillcolor="#e58139cf"] ;
0 -> 4 [labeldistance=2.5, labelangle=-45, headlabel="False"] ;
5 [label="gini = 0.1776\nsamples = 396\nvalue = [357, 39]\nclass = 0", fillcolor="#e58139e3"] ;
4 -> 5 ;
6 [label="gini = 0.4444\nsamples = 135\nvalue = [90, 45]\nclass = 0", fillcolor="#e581397f"] ;
4 -> 6 ;
}